{
  "rnn_cell.layer_0.sparsity_mask": [
    [
      0.0,
      1.0,
      1.0,
      1.0,
      1.0,
      1.0,
      1.0,
      1.0,
      1.0,
      1.0,
      1.0
    ],
    [
      0.0,
      1.0,
      1.0,
      1.0,
      1.0,
      1.0,
      1.0,
      1.0,
      1.0,
      1.0,
      1.0
    ],
    [
      1.0,
      0.0,
      1.0,
      1.0,
      1.0,
      1.0,
      1.0,
      1.0,
      1.0,
      1.0,
      1.0
    ],
    [
      1.0,
      1.0,
      1.0,
      1.0,
      1.0,
      1.0,
      1.0,
      1.0,
      1.0,
      1.0,
      1.0
    ],
    [
      1.0,
      0.0,
      1.0,
      1.0,
      1.0,
      1.0,
      1.0,
      1.0,
      1.0,
      1.0,
      1.0
    ],
    [
      1.0,
      0.0,
      1.0,
      1.0,
      1.0,
      1.0,
      1.0,
      1.0,
      1.0,
      1.0,
      1.0
    ],
    [
      0.0,
      1.0,
      1.0,
      1.0,
      1.0,
      1.0,
      1.0,
      1.0,
      1.0,
      1.0,
      1.0
    ],
    [
      1.0,
      0.0,
      1.0,
      1.0,
      1.0,
      1.0,
      1.0,
      1.0,
      1.0,
      1.0,
      1.0
    ],
    [
      1.0,
      1.0,
      1.0,
      1.0,
      1.0,
      1.0,
      1.0,
      1.0,
      1.0,
      1.0,
      1.0
    ]
  ],
  "rnn_cell.layer_0.ff1.weight": [
    [
      -0.16140712797641754,
      -0.6104389429092407,
      -0.005204525776207447,
      -0.5883722901344299,
      0.21347445249557495,
      0.537228524684906,
      0.1997857540845871,
      0.42780742049217224,
      0.25071507692337036,
      -0.13385501503944397,
      -0.023127267137169838
    ],
    [
      0.06570693105459213,
      -0.7885655164718628,
      0.08809876441955566,
      -0.027823086827993393,
      0.5414189100265503,
      0.4195714294910431,
      -0.17933312058448792,
      -0.5045357346534729,
      0.4791993498802185,
      -0.16070657968521118,
      -0.21559445559978485
    ],
    [
      2.972764253616333,
      0.46817052364349365,
      0.2317035049200058,
      0.26775726675987244,
      -0.03346049785614014,
      0.08852529525756836,
      0.47251272201538086,
      0.37680909037590027,
      0.5200803279876709,
      0.356404185295105,
      -0.09738423675298691
    ],
    [
      -4.512449741363525,
      -0.5635835528373718,
      -0.5375648140907288,
      -0.0028984651435166597,
      0.22907733917236328,
      -0.11881206184625626,
      0.36074724793434143,
      -0.2673914432525635,
      0.6365681290626526,
      0.49100473523139954,
      0.7134172916412354
    ],
    [
      1.7083088159561157,
      -0.37148424983024597,
      0.2543753981590271,
      0.17946672439575195,
      -0.2772737741470337,
      -0.4110450744628906,
      -0.03041795641183853,
      -0.09834294766187668,
      0.36366990208625793,
      -0.33475613594055176,
      -0.2858189046382904
    ],
    [
      0.4639981985092163,
      0.21942631900310516,
      -0.006154044531285763,
      -0.6813950538635254,
      0.857893705368042,
      -0.10043118894100189,
      0.39265871047973633,
      -0.517844557762146,
      -0.45827051997184753,
      -0.08879899233579636,
      -0.3656592071056366
    ],
    [
      0.07127124816179276,
      -0.415615439414978,
      0.2879599928855896,
      0.036265455186367035,
      -1.0229601860046387,
      0.5256139636039734,
      -0.2056167721748352,
      -0.32524099946022034,
      0.05338186025619507,
      -0.39894264936447144,
      -0.01566430740058422
    ],
    [
      -0.1267242282629013,
      -0.12872539460659027,
      0.5680223703384399,
      0.8799390196800232,
      -0.015241298824548721,
      0.46519970893859863,
      -0.14818641543388367,
      0.24019519984722137,
      0.4747730791568756,
      -1.0336027145385742,
      -0.1902034729719162
    ],
    [
      -4.755543231964111,
      -1.1015498638153076,
      0.006923773791640997,
      -0.25074514746665955,
      -0.20717109739780426,
      -0.19111773371696472,
      -0.05479445680975914,
      0.027944356203079224,
      -0.5016512274742126,
      -0.49675318598747253,
      0.40527743101119995
    ]
  ],
  "rnn_cell.layer_0.ff1.bias": [
    -0.15995390713214874,
    0.100347138941288,
    -0.23864911496639252,
    -0.07668557018041611,
    -0.03605061024427414,
    0.07797067612409592,
    0.0006587485549971461,
    0.03266508877277374,
    0.12254966795444489
  ],
  "rnn_cell.layer_0.ff2.weight": [
    [
      0.16749490797519684,
      -0.3384225368499756,
      -0.26209044456481934,
      0.025854669511318207,
      -0.04366264492273331,
      0.6138901710510254,
      0.46514490246772766,
      -0.681076169013977,
      0.25257569551467896,
      -0.08763469755649567,
      0.47722962498664856
    ],
    [
      -0.24064159393310547,
      0.5789833664894104,
      0.431277334690094,
      -0.025668319314718246,
      -0.13206148147583008,
      -0.47980237007141113,
      -0.003543334547430277,
      -0.4025284945964813,
      -0.12294183671474457,
      -0.8870676159858704,
      0.026443690061569214
    ],
    [
      3.538802146911621,
      0.15525908768177032,
      0.23155786097049713,
      0.2686687409877777,
      -0.03327709436416626,
      -0.6513488292694092,
      0.194549098610878,
      -0.7716190218925476,
      0.23805248737335205,
      -0.15429756045341492,
      -0.2810342609882355
    ],
    [
      -4.176781177520752,
      -0.4656396806240082,
      0.3719998002052307,
      0.20125338435173035,
      -0.3488462567329407,
      -0.12352398782968521,
      0.038938138633966446,
      0.32604309916496277,
      -0.1737007051706314,
      -0.6501652598381042,
      -0.32351309061050415
    ],
    [
      2.6635260581970215,
      -0.08020981401205063,
      0.07754021137952805,
      -0.8340603709220886,
      -0.4005487263202667,
      0.3450632691383362,
      -0.41200992465019226,
      -0.035913530737161636,
      0.7255364060401917,
      0.6133691668510437,
      -0.002070670947432518
    ],
    [
      0.2574409246444702,
      0.05976644903421402,
      0.662990927696228,
      0.4591887295246124,
      0.7164331674575806,
      0.528289794921875,
      -0.07351738959550858,
      -0.010971542447805405,
      -0.20108884572982788,
      0.13630113005638123,
      0.08270364999771118
    ],
    [
      -0.35966911911964417,
      -0.3187794089317322,
      0.0052983760833740234,
      0.08077657967805862,
      -0.9949973821640015,
      -0.20203155279159546,
      -0.8840068578720093,
      -0.043504174798727036,
      -0.40020695328712463,
      0.49201247096061707,
      -0.1650555282831192
    ],
    [
      -0.4893115758895874,
      0.0867161974310875,
      -0.7856382727622986,
      0.2590213716030121,
      -0.1621842384338379,
      -0.29562827944755554,
      -0.8236799836158752,
      0.2671267092227936,
      -0.12367895990610123,
      0.12110908329486847,
      -0.3607997000217438
    ],
    [
      -3.463130235671997,
      -0.8543234467506409,
      -0.02785247564315796,
      0.15964405238628387,
      0.15191861987113953,
      0.3373264968395233,
      -0.15508872270584106,
      0.14115415513515472,
      0.43184977769851685,
      -0.1369883418083191,
      0.6753905415534973
    ]
  ],
  "rnn_cell.layer_0.ff2.bias": [
    0.10870599746704102,
    -0.08125496655702591,
    0.24661649763584137,
    0.1305863857269287,
    0.05941816419363022,
    -0.02678322233259678,
    -0.05922720208764076,
    -0.14337484538555145,
    -0.17208729684352875
  ],
  "rnn_cell.layer_0.time_a.weight": [
    [
      -0.8515000343322754,
      0.5585266351699829,
      -0.3340032398700714,
      0.4770534932613373,
      -0.7251328825950623,
      0.53831547498703,
      -0.12422674894332886,
      -0.5119096636772156,
      -0.5440974831581116,
      1.3766850233078003,
      -0.0736887976527214
    ],
    [
      -1.6577134132385254,
      -1.3086719512939453,
      0.17483919858932495,
      0.4521777033805847,
      0.3045080006122589,
      0.9176326394081116,
      0.3057791292667389,
      -0.9132919311523438,
      0.8711123466491699,
      1.0523732900619507,
      -0.006203928496688604
    ],
    [
      1.8697404861450195,
      0.5301526188850403,
      -0.052973221987485886,
      -0.35679176449775696,
      -0.5222256183624268,
      0.01977967470884323,
      -0.5149499773979187,
      -0.24906575679779053,
      0.023206200450658798,
      0.15167246758937836,
      -0.5412459969520569
    ],
    [
      -0.20242595672607422,
      -0.1125616654753685,
      0.783405601978302,
      0.43259352445602417,
      -0.2045590579509735,
      -0.2722737789154053,
      0.5446245074272156,
      -0.38293302059173584,
      1.1782106161117554,
      -0.5375251770019531,
      0.2776270806789398
    ],
    [
      0.9699032306671143,
      -0.1962696611881256,
      0.23213206231594086,
      0.09611348807811737,
      0.4331384003162384,
      0.14576028287410736,
      -0.09403403848409653,
      0.8041675090789795,
      -0.08177132159471512,
      0.6775174140930176,
      -0.10120479762554169
    ],
    [
      -0.2853843867778778,
      0.18596170842647552,
      -0.27827680110931396,
      -0.7546489238739014,
      -0.3786903917789459,
      -0.14372800290584564,
      -0.5624209046363831,
      -1.037062168121338,
      0.26594406366348267,
      -1.3101065158843994,
      -0.15112999081611633
    ],
    [
      1.069557547569275,
      0.5070797204971313,
      0.33955755829811096,
      -0.10026585310697556,
      -0.30383428931236267,
      0.5781410336494446,
      0.4099496901035309,
      0.37202924489974976,
      0.3873463571071625,
      -0.7523192167282104,
      -0.001896771602332592
    ],
    [
      -0.5000333189964294,
      -0.5511196851730347,
      -0.009961874224245548,
      0.23741263151168823,
      -0.24673984944820404,
      -0.7615501880645752,
      -0.04077482596039772,
      0.36847344040870667,
      -0.5074670910835266,
      1.0209505558013916,
      0.6133319139480591
    ],
    [
      3.1568076610565186,
      -0.17671212553977966,
      -0.01800493709743023,
      -0.8708875775337219,
      -0.0028381154406815767,
      0.12640221416950226,
      0.19910383224487305,
      -0.6021140813827515,
      0.1981326788663864,
      -1.1758979558944702,
      -0.0010644423309713602
    ]
  ],
  "rnn_cell.layer_0.time_a.bias": [
    -0.1100158616900444,
    -0.08395926654338837,
    -0.07500505447387695,
    -0.1764843612909317,
    0.06483358144760132,
    0.30671295523643494,
    -0.8057609796524048,
    -0.02619936689734459,
    -0.036783162504434586
  ],
  "rnn_cell.layer_0.time_b.weight": [
    [
      -0.05677381902933121,
      -0.23725903034210205,
      -0.35865840315818787,
      0.030041618272662163,
      0.00554757472127676,
      0.2891974151134491,
      0.36170893907546997,
      0.25382500886917114,
      -0.7453565001487732,
      0.7373985052108765,
      0.14652347564697266
    ],
    [
      -1.7944896221160889,
      -0.7214387059211731,
      -0.1544261872768402,
      0.003994630184024572,
      0.18457725644111633,
      0.1956251710653305,
      -0.20263566076755524,
      0.06881926953792572,
      0.5543797016143799,
      0.835327684879303,
      0.1975361704826355
    ],
    [
      2.264404773712158,
      0.8275066018104553,
      -0.03392413631081581,
      0.1556822508573532,
      -0.4956682324409485,
      0.26435843110084534,
      -0.488472580909729,
      0.5660561323165894,
      -0.15973792970180511,
      -0.5609469413757324,
      -0.2151554971933365
    ],
    [
      0.3207237124443054,
      -0.19220523536205292,
      0.8867097496986389,
      1.3634933233261108,
      0.5727550983428955,
      -0.43630218505859375,
      0.7674641013145447,
      0.08601606637239456,
      0.5282397866249084,
      -0.29063189029693604,
      0.32615646719932556
    ],
    [
      1.4791194200515747,
      -0.788162350654602,
      0.39036622643470764,
      0.6747866272926331,
      0.054899170994758606,
      -0.5000698566436768,
      -0.0640987679362297,
      1.071839451789856,
      -0.019575288519263268,
      0.11634943634271622,
      -0.44613203406333923
    ],
    [
      -0.2127549797296524,
      0.5900418758392334,
      -1.0276658535003662,
      -0.789412260055542,
      -0.41404983401298523,
      -0.5742936730384827,
      -0.5662350058555603,
      -0.5276896357536316,
      0.2104259878396988,
      -1.915282964706421,
      -0.18639728426933289
    ],
    [
      0.3198251724243164,
      0.741550624370575,
      0.2311813235282898,
      -0.25873345136642456,
      0.63080233335495,
      0.6319065690040588,
      0.5848896503448486,
      0.3146752715110779,
      0.3876486122608185,
      -0.5199021100997925,
      -0.1435432732105255
    ],
    [
      -0.22528338432312012,
      -0.7199151515960693,
      -0.3828289210796356,
      -0.3028397858142853,
      -0.5781655311584473,
      -1.0198088884353638,
      0.05878247693181038,
      0.07180128991603851,
      -0.33954504132270813,
      1.3056557178497314,
      0.3786247968673706
    ],
    [
      3.2129104137420654,
      0.775085985660553,
      0.5494219064712524,
      -1.1888346672058105,
      -0.4319130480289459,
      -0.009294506162405014,
      0.3319055736064911,
      -0.9017928838729858,
      -0.12804925441741943,
      -1.214246153831482,
      -0.46463140845298767
    ]
  ],
  "rnn_cell.layer_0.time_b.bias": [
    0.3583647906780243,
    -0.1731540411710739,
    0.06581219285726547,
    -0.2898159921169281,
    0.393207311630249,
    -0.20601627230644226,
    -1.1104756593704224,
    -0.2557256817817688,
    -0.3560774326324463
  ],
  "rnn_cell.layer_1.sparsity_mask": [
    [
      1.0,
      1.0,
      0.0,
      1.0,
      0.0,
      0.0,
      0.0,
      0.0,
      1.0,
      1.0,
      1.0,
      1.0,
      1.0,
      1.0,
      1.0
    ],
    [
      1.0,
      0.0,
      0.0,
      0.0,
      1.0,
      1.0,
      1.0,
      1.0,
      0.0,
      1.0,
      1.0,
      1.0,
      1.0,
      1.0,
      1.0
    ],
    [
      1.0,
      0.0,
      1.0,
      0.0,
      0.0,
      0.0,
      0.0,
      0.0,
      0.0,
      1.0,
      1.0,
      1.0,
      1.0,
      1.0,
      1.0
    ],
    [
      0.0,
      1.0,
      1.0,
      1.0,
      1.0,
      1.0,
      0.0,
      0.0,
      0.0,
      1.0,
      1.0,
      1.0,
      1.0,
      1.0,
      1.0
    ],
    [
      0.0,
      0.0,
      1.0,
      1.0,
      1.0,
      0.0,
      1.0,
      1.0,
      1.0,
      1.0,
      1.0,
      1.0,
      1.0,
      1.0,
      1.0
    ],
    [
      0.0,
      1.0,
      0.0,
      0.0,
      0.0,
      1.0,
      1.0,
      1.0,
      1.0,
      1.0,
      1.0,
      1.0,
      1.0,
      1.0,
      1.0
    ]
  ],
  "rnn_cell.layer_1.ff1.weight": [
    [
      0.11934119462966919,
      0.2265683263540268,
      -0.48749855160713196,
      0.1743459552526474,
      -0.048952795565128326,
      -0.5202100872993469,
      0.37116506695747375,
      -0.24540844559669495,
      -0.2871897220611572,
      -0.295437753200531,
      -0.33621612191200256,
      0.4169679284095764,
      0.3054144084453583,
      0.14293068647384644,
      0.0916832759976387
    ],
    [
      -0.3736089766025543,
      0.34464025497436523,
      -0.2045625001192093,
      -0.32161304354667664,
      -0.2100028395652771,
      -0.3783247768878937,
      -0.7528395652770996,
      0.1840071976184845,
      0.5097774267196655,
      -0.21264131367206573,
      0.6010679006576538,
      -0.06309548020362854,
      -0.27275770902633667,
      -0.2679666578769684,
      0.4480547308921814
    ],
    [
      0.4144488573074341,
      0.3033756613731384,
      -0.448578417301178,
      0.34060484170913696,
      0.44264060258865356,
      0.2636793553829193,
      -0.13106653094291687,
      0.4413204491138458,
      -0.10558953136205673,
      0.046771056950092316,
      -0.008216751739382744,
      0.42206627130508423,
      -0.20788395404815674,
      -0.14185793697834015,
      -0.04266331344842911
    ],
    [
      0.28310427069664,
      0.9302206039428711,
      -0.19725313782691956,
      0.46462637186050415,
      0.2856276035308838,
      -0.11760876327753067,
      0.12787504494190216,
      -0.42063021659851074,
      -0.4861156940460205,
      0.08116379380226135,
      -0.23137377202510834,
      -0.7987205982208252,
      0.19263912737369537,
      -0.2009246051311493,
      0.19642648100852966
    ],
    [
      0.2679876983165741,
      -0.019823497161269188,
      -0.3878692388534546,
      0.46366235613822937,
      -0.04032943397760391,
      0.3055464029312134,
      0.08976227790117264,
      0.17370274662971497,
      0.2823818325996399,
      -0.3158240020275116,
      -0.15973308682441711,
      -0.1922331154346466,
      -0.445609986782074,
      0.4664403200149536,
      -0.42108285427093506
    ],
    [
      -0.45353150367736816,
      -0.840291440486908,
      0.33315229415893555,
      0.2610457241535187,
      -0.40791821479797363,
      -0.7343020439147949,
      0.7801876664161682,
      0.6003899574279785,
      -0.06224776804447174,
      0.581706166267395,
      0.497726708650589,
      -0.7682594060897827,
      0.24521763622760773,
      -0.08949790894985199,
      -0.18498101830482483
    ]
  ],
  "rnn_cell.layer_1.ff1.bias": [
    -0.11080826818943024,
    -0.13234244287014008,
    -0.0939539447426796,
    -0.01812116615474224,
    -0.09659021347761154,
    0.09040816873311996
  ],
  "rnn_cell.layer_1.ff2.weight": [
    [
      -0.42710256576538086,
      0.00020684703486040235,
      -0.47852441668510437,
      -0.5295575261116028,
      0.17086854577064514,
      0.5019203424453735,
      0.47810837626457214,
      0.11731351166963577,
      -0.4783785045146942,
      0.2638055384159088,
      -0.17570839822292328,
      0.07532208412885666,
      0.16905516386032104,
      0.8964506983757019,
      -0.3029801547527313
    ],
    [
      0.5936336517333984,
      -0.3035689890384674,
      -0.06429626792669296,
      0.5229809880256653,
      -0.036392953246831894,
      -0.3663834035396576,
      0.27207061648368835,
      -0.3890587389469147,
      0.2901241183280945,
      -0.2247232347726822,
      0.009613909758627415,
      0.5751184821128845,
      0.289736807346344,
      -0.35313349962234497,
      -0.8432402610778809
    ],
    [
      -0.44581642746925354,
      -0.44790858030319214,
      0.24701236188411713,
      0.4848632216453552,
      -0.18388260900974274,
      0.3648320436477661,
      0.21194083988666534,
      -0.44590839743614197,
      -0.3998764157295227,
      -0.2917094826698303,
      -0.5306280851364136,
      0.670748770236969,
      0.18712931871414185,
      -0.08064613491296768,
      0.3466533422470093
    ],
    [
      -0.06321678310632706,
      -0.5023051500320435,
      -0.21015992760658264,
      0.3937273621559143,
      -0.21068507432937622,
      -0.07004506886005402,
      0.3460278809070587,
      0.3662591874599457,
      -0.5311803221702576,
      0.1299327164888382,
      0.4807024598121643,
      0.2607576847076416,
      -0.33053261041641235,
      -0.19878388941287994,
      -0.13257469236850739
    ],
    [
      0.13332527875900269,
      -0.4636380076408386,
      -0.38531580567359924,
      0.379926472902298,
      -0.08348219841718674,
      -0.17881029844284058,
      0.3629416823387146,
      -0.2323150932788849,
      0.19981209933757782,
      -0.46680498123168945,
      -0.3864757716655731,
      -0.3297882080078125,
      0.4181877374649048,
      -0.2650090157985687,
      0.04982408136129379
    ],
    [
      -0.21836107969284058,
      0.602012038230896,
      -0.11174533516168594,
      0.10848407447338104,
      0.14631427824497223,
      -0.017054323107004166,
      -0.08348142355680466,
      0.2516028583049774,
      -0.2144608199596405,
      0.010806282982230186,
      0.5478400588035583,
      -0.0813305526971817,
      0.4408361613750458,
      -0.6081647276878357,
      0.3725999891757965
    ]
  ],
  "rnn_cell.layer_1.ff2.bias": [
    -0.01620614528656006,
    0.08482564985752106,
    0.047709230333566666,
    0.06710659712553024,
    0.03914405778050423,
    -0.03365892544388771
  ],
  "rnn_cell.layer_1.time_a.weight": [
    [
      0.5572518110275269,
      -1.3177751302719116,
      0.47389018535614014,
      -0.17549952864646912,
      0.2613203227519989,
      -0.08909932523965836,
      0.07176946848630905,
      -0.013402567245066166,
      -0.5301157832145691,
      0.05738154053688049,
      0.686500608921051,
      -0.1461239606142044,
      -0.46529489755630493,
      0.15773318707942963,
      0.427299439907074
    ],
    [
      -0.4131655693054199,
      1.7342896461486816,
      0.4939739406108856,
      0.496768593788147,
      -0.39006203413009644,
      0.12847328186035156,
      0.17723338305950165,
      -1.1839046478271484,
      0.39388740062713623,
      0.1407235860824585,
      1.789631724357605,
      -1.279061198234558,
      0.1320105493068695,
      -0.011575778014957905,
      0.23912617564201355
    ],
    [
      -0.026716554537415504,
      1.5324299335479736,
      -0.07542794942855835,
      -0.4114760458469391,
      -0.5247638821601868,
      0.8408409357070923,
      -0.3440077304840088,
      -0.3300364315509796,
      0.040407147258520126,
      -0.7524253726005554,
      -0.7101548910140991,
      -0.08801286667585373,
      0.4484391510486603,
      0.5342644453048706,
      0.12291282415390015
    ],
    [
      0.04998766630887985,
      -0.1105954498052597,
      -0.4033357501029968,
      0.33390337228775024,
      -0.8492368459701538,
      0.19061057269573212,
      0.3188653886318207,
      0.15406228601932526,
      0.727457582950592,
      -0.6342180371284485,
      0.1140463575720787,
      -0.4520353078842163,
      0.2164405733346939,
      -0.369811475276947,
      -0.8028917908668518
    ],
    [
      -0.7778255939483643,
      0.6657034754753113,
      -0.09270062297582626,
      -0.10619737207889557,
      -0.31939274072647095,
      0.18272200226783752,
      -0.27274224162101746,
      0.5162686109542847,
      0.026262564584612846,
      0.4251265227794647,
      -0.17587919533252716,
      -0.13068711757659912,
      -0.08655847609043121,
      0.25073495507240295,
      -0.4296902120113373
    ],
    [
      -0.33128854632377625,
      -0.14243893325328827,
      0.6247531771659851,
      -0.8482882380485535,
      -0.016985774040222168,
      1.4272856712341309,
      -0.2690007984638214,
      1.4453961849212646,
      -1.0969350337982178,
      0.07483341544866562,
      0.4471895098686218,
      1.067967414855957,
      0.6751387715339661,
      0.4689292311668396,
      0.23112349212169647
    ]
  ],
  "rnn_cell.layer_1.time_a.bias": [
    0.010072601959109306,
    0.24332977831363678,
    0.2363993376493454,
    -0.07021881639957428,
    -0.009395397268235683,
    0.14857007563114166
  ],
  "rnn_cell.layer_1.time_b.weight": [
    [
      0.2498757690191269,
      -1.9095226526260376,
      -0.10028864443302155,
      0.4005209505558014,
      0.3653164803981781,
      -0.3237084448337555,
      0.1367190033197403,
      0.1748993992805481,
      0.025616709142923355,
      0.45826447010040283,
      1.0623399019241333,
      -0.16489186882972717,
      0.07377029210329056,
      -0.36661389470100403,
      -0.0021717429626733065
    ],
    [
      0.23126515746116638,
      1.8028664588928223,
      0.8472044467926025,
      -0.256547212600708,
      0.514359176158905,
      -0.1950969696044922,
      -0.18495197594165802,
      -1.237191915512085,
      -0.18388210237026215,
      -0.18049070239067078,
      1.0721784830093384,
      -0.866601288318634,
      0.06830935180187225,
      0.6305354833602905,
      -0.4190787672996521
    ],
    [
      -0.21219509840011597,
      1.9510939121246338,
      0.030636558309197426,
      -0.3014644682407379,
      -1.005607008934021,
      0.051237430423498154,
      0.40060698986053467,
      -0.5653561949729919,
      -0.32819676399230957,
      -0.1739695817232132,
      -0.15304253995418549,
      0.06320953369140625,
      0.9663108587265015,
      -0.05026716738939285,
      0.6878357529640198
    ],
    [
      0.4894939064979553,
      -0.08490978181362152,
      -0.7383047938346863,
      0.023639878258109093,
      -0.6560765504837036,
      0.42275938391685486,
      0.47304925322532654,
      0.06713609397411346,
      0.38735997676849365,
      0.24786324799060822,
      0.35680481791496277,
      -0.5504235625267029,
      -0.1046455129981041,
      -0.21899107098579407,
      -0.8878156542778015
    ],
    [
      0.19324991106987,
      -0.13169074058532715,
      0.21694612503051758,
      0.14458125829696655,
      -0.43416810035705566,
      0.10512810200452805,
      0.30090805888175964,
      0.4055350720882416,
      0.5395504832267761,
      -0.043572038412094116,
      0.2734856605529785,
      0.2389078289270401,
      0.8495309948921204,
      0.143329456448555,
      -0.4597479999065399
    ],
    [
      -1.0475890636444092,
      0.5880876183509827,
      0.8266409039497375,
      -1.5600773096084595,
      -0.20983804762363434,
      0.6341399550437927,
      -1.026932716369629,
      1.5739309787750244,
      -0.7919778823852539,
      -0.35982248187065125,
      -0.24385830760002136,
      1.1356282234191895,
      0.7375690340995789,
      0.4021323323249817,
      0.3370731472969055
    ]
  ],
  "rnn_cell.layer_1.time_b.bias": [
    -0.03699399530887604,
    -0.045651476830244064,
    0.2413453608751297,
    0.03621216490864754,
    0.17760659754276276,
    -0.2197742611169815
  ],
  "rnn_cell.layer_2.sparsity_mask": [
    [
      1.0,
      1.0,
      1.0,
      1.0,
      1.0,
      1.0,
      1.0
    ]
  ],
  "rnn_cell.layer_2.ff1.weight": [
    [
      0.7716436982154846,
      0.22985069453716278,
      -0.22283071279525757,
      -0.24599415063858032,
      -0.2967238128185272,
      0.2652987241744995,
      -0.9830917119979858
    ]
  ],
  "rnn_cell.layer_2.ff1.bias": [
    0.08486887812614441
  ],
  "rnn_cell.layer_2.ff2.weight": [
    [
      0.39008209109306335,
      0.19090485572814941,
      -0.3420291543006897,
      0.08016633242368698,
      -0.4454612135887146,
      -0.6950469613075256,
      0.18557621538639069
    ]
  ],
  "rnn_cell.layer_2.ff2.bias": [
    -0.019918156787753105
  ],
  "rnn_cell.layer_2.time_a.weight": [
    [
      0.09925984591245651,
      -0.6042940020561218,
      -0.18787473440170288,
      -0.30461835861206055,
      0.5003154873847961,
      0.3803713917732239,
      -0.33044010400772095
    ]
  ],
  "rnn_cell.layer_2.time_a.bias": [
    -0.0701611340045929
  ],
  "rnn_cell.layer_2.time_b.weight": [
    [
      -0.7544679045677185,
      -0.1263650804758072,
      -0.8109045624732971,
      0.4995655417442322,
      -0.522955596446991,
      -0.30858397483825684,
      -0.16708426177501678
    ]
  ],
  "rnn_cell.layer_2.time_b.bias": [
    -0.2828485667705536
  ],
  "u_scale": 40.542869567871094
}